|--- feature_3 <= -0.50
|   |--- feature_11 <= 79.50
|   |   |--- feature_13 <= 0.50
|   |   |   |--- feature_7 <= 497.50
|   |   |   |   |--- class: 0
|   |   |   |--- feature_7 >  497.50
|   |   |   |   |--- feature_0 <= 0.49
|   |   |   |   |   |--- feature_7 <= 792316576.00
|   |   |   |   |   |   |--- feature_7 <= 175575.00
|   |   |   |   |   |   |   |--- class: 7
|   |   |   |   |   |   |--- feature_7 >  175575.00
|   |   |   |   |   |   |   |--- feature_7 <= 9882985.00
|   |   |   |   |   |   |   |   |--- feature_1 <= 0.37
|   |   |   |   |   |   |   |   |   |--- feature_1 <= 0.35
|   |   |   |   |   |   |   |   |   |   |--- feature_6 <= 121582.00
|   |   |   |   |   |   |   |   |   |   |   |--- truncated branch of depth 2
|   |   |   |   |   |   |   |   |   |   |--- feature_6 >  121582.00
|   |   |   |   |   |   |   |   |   |   |   |--- class: 5
|   |   |   |   |   |   |   |   |   |--- feature_1 >  0.35
|   |   |   |   |   |   |   |   |   |   |--- class: 7
|   |   |   |   |   |   |   |   |--- feature_1 >  0.37
|   |   |   |   |   |   |   |   |   |--- class: 5
|   |   |   |   |   |   |   |--- feature_7 >  9882985.00
|   |   |   |   |   |   |   |   |--- feature_6 <= 140264.00
|   |   |   |   |   |   |   |   |   |--- feature_6 <= 139815.50
|   |   |   |   |   |   |   |   |   |   |--- feature_1 <= 0.69
|   |   |   |   |   |   |   |   |   |   |   |--- truncated branch of depth 11
|   |   |   |   |   |   |   |   |   |   |--- feature_1 >  0.69
|   |   |   |   |   |   |   |   |   |   |   |--- truncated branch of depth 8
|   |   |   |   |   |   |   |   |   |--- feature_6 >  139815.50
|   |   |   |   |   |   |   |   |   |   |--- feature_1 <= 0.75
|   |   |   |   |   |   |   |   |   |   |   |--- class: 7
|   |   |   |   |   |   |   |   |   |   |--- feature_1 >  0.75
|   |   |   |   |   |   |   |   |   |   |   |--- class: 5
|   |   |   |   |   |   |   |   |--- feature_6 >  140264.00
|   |   |   |   |   |   |   |   |   |--- feature_6 <= 140621.50
|   |   |   |   |   |   |   |   |   |   |--- feature_1 <= 0.09
|   |   |   |   |   |   |   |   |   |   |   |--- class: 7
|   |   |   |   |   |   |   |   |   |   |--- feature_1 >  0.09
|   |   |   |   |   |   |   |   |   |   |   |--- truncated branch of depth 4
|   |   |   |   |   |   |   |   |   |--- feature_6 >  140621.50
|   |   |   |   |   |   |   |   |   |   |--- feature_7 <= 359094160.00
|   |   |   |   |   |   |   |   |   |   |   |--- truncated branch of depth 2
|   |   |   |   |   |   |   |   |   |   |--- feature_7 >  359094160.00
|   |   |   |   |   |   |   |   |   |   |   |--- class: 7
|   |   |   |   |   |--- feature_7 >  792316576.00
|   |   |   |   |   |   |--- feature_7 <= 869507136.00
|   |   |   |   |   |   |   |--- class: 7
|   |   |   |   |   |   |--- feature_7 >  869507136.00
|   |   |   |   |   |   |   |--- feature_1 <= 0.20
|   |   |   |   |   |   |   |   |--- class: 7
|   |   |   |   |   |   |   |--- feature_1 >  0.20
|   |   |   |   |   |   |   |   |--- feature_7 <= 904513664.00
|   |   |   |   |   |   |   |   |   |--- class: 5
|   |   |   |   |   |   |   |   |--- feature_7 >  904513664.00
|   |   |   |   |   |   |   |   |   |--- feature_6 <= 140390.50
|   |   |   |   |   |   |   |   |   |   |--- feature_1 <= 0.21
|   |   |   |   |   |   |   |   |   |   |   |--- class: 5
|   |   |   |   |   |   |   |   |   |   |--- feature_1 >  0.21
|   |   |   |   |   |   |   |   |   |   |   |--- truncated branch of depth 8
|   |   |   |   |   |   |   |   |   |--- feature_6 >  140390.50
|   |   |   |   |   |   |   |   |   |   |--- feature_1 <= 0.72
|   |   |   |   |   |   |   |   |   |   |   |--- class: 5
|   |   |   |   |   |   |   |   |   |   |--- feature_1 >  0.72
|   |   |   |   |   |   |   |   |   |   |   |--- class: 7
|   |   |   |   |--- feature_0 >  0.49
|   |   |   |   |   |--- feature_0 <= 0.60
|   |   |   |   |   |   |--- feature_7 <= 5396006.50
|   |   |   |   |   |   |   |--- feature_6 <= 140523.50
|   |   |   |   |   |   |   |   |--- class: 5
|   |   |   |   |   |   |   |--- feature_6 >  140523.50
|   |   |   |   |   |   |   |   |--- class: 7
|   |   |   |   |   |   |--- feature_7 >  5396006.50
|   |   |   |   |   |   |   |--- feature_7 <= 175808768.00
|   |   |   |   |   |   |   |   |--- feature_7 <= 168707352.00
|   |   |   |   |   |   |   |   |   |--- feature_0 <= 0.59
|   |   |   |   |   |   |   |   |   |   |--- feature_0 <= 0.55
|   |   |   |   |   |   |   |   |   |   |   |--- truncated branch of depth 4
|   |   |   |   |   |   |   |   |   |   |--- feature_0 >  0.55
|   |   |   |   |   |   |   |   |   |   |   |--- truncated branch of depth 4
|   |   |   |   |   |   |   |   |   |--- feature_0 >  0.59
|   |   |   |   |   |   |   |   |   |   |--- class: 7
|   |   |   |   |   |   |   |   |--- feature_7 >  168707352.00
|   |   |   |   |   |   |   |   |   |--- class: 5
|   |   |   |   |   |   |   |--- feature_7 >  175808768.00
|   |   |   |   |   |   |   |   |--- feature_1 <= 0.67
|   |   |   |   |   |   |   |   |   |--- feature_6 <= 141844.00
|   |   |   |   |   |   |   |   |   |   |--- feature_0 <= 0.53
|   |   |   |   |   |   |   |   |   |   |   |--- truncated branch of depth 5
|   |   |   |   |   |   |   |   |   |   |--- feature_0 >  0.53
|   |   |   |   |   |   |   |   |   |   |   |--- truncated branch of depth 5
|   |   |   |   |   |   |   |   |   |--- feature_6 >  141844.00
|   |   |   |   |   |   |   |   |   |   |--- feature_0 <= 0.57
|   |   |   |   |   |   |   |   |   |   |   |--- class: 7
|   |   |   |   |   |   |   |   |   |   |--- feature_0 >  0.57
|   |   |   |   |   |   |   |   |   |   |   |--- class: 5
|   |   |   |   |   |   |   |   |--- feature_1 >  0.67
|   |   |   |   |   |   |   |   |   |--- feature_0 <= 0.58
|   |   |   |   |   |   |   |   |   |   |--- feature_1 <= 0.70
|   |   |   |   |   |   |   |   |   |   |   |--- class: 5
|   |   |   |   |   |   |   |   |   |   |--- feature_1 >  0.70
|   |   |   |   |   |   |   |   |   |   |   |--- truncated branch of depth 3
|   |   |   |   |   |   |   |   |   |--- feature_0 >  0.58
|   |   |   |   |   |   |   |   |   |   |--- class: 7
|   |   |   |   |   |--- feature_0 >  0.60
|   |   |   |   |   |   |--- feature_7 <= 149232.00
|   |   |   |   |   |   |   |--- class: 7
|   |   |   |   |   |   |--- feature_7 >  149232.00
|   |   |   |   |   |   |   |--- feature_7 <= 14633189.00
|   |   |   |   |   |   |   |   |--- feature_1 <= 0.01
|   |   |   |   |   |   |   |   |   |--- class: 7
|   |   |   |   |   |   |   |   |--- feature_1 >  0.01
|   |   |   |   |   |   |   |   |   |--- feature_1 <= 0.90
|   |   |   |   |   |   |   |   |   |   |--- feature_0 <= 0.75
|   |   |   |   |   |   |   |   |   |   |   |--- truncated branch of depth 4
|   |   |   |   |   |   |   |   |   |   |--- feature_0 >  0.75
|   |   |   |   |   |   |   |   |   |   |   |--- class: 5
|   |   |   |   |   |   |   |   |   |--- feature_1 >  0.90
|   |   |   |   |   |   |   |   |   |   |--- feature_0 <= 0.83
|   |   |   |   |   |   |   |   |   |   |   |--- class: 7
|   |   |   |   |   |   |   |   |   |   |--- feature_0 >  0.83
|   |   |   |   |   |   |   |   |   |   |   |--- class: 5
|   |   |   |   |   |   |   |--- feature_7 >  14633189.00
|   |   |   |   |   |   |   |   |--- feature_0 <= 0.91
|   |   |   |   |   |   |   |   |   |--- feature_6 <= 124848.00
|   |   |   |   |   |   |   |   |   |   |--- feature_1 <= 0.68
|   |   |   |   |   |   |   |   |   |   |   |--- truncated branch of depth 7
|   |   |   |   |   |   |   |   |   |   |--- feature_1 >  0.68
|   |   |   |   |   |   |   |   |   |   |   |--- truncated branch of depth 3
|   |   |   |   |   |   |   |   |   |--- feature_6 >  124848.00
|   |   |   |   |   |   |   |   |   |   |--- feature_0 <= 0.67
|   |   |   |   |   |   |   |   |   |   |   |--- truncated branch of depth 3
|   |   |   |   |   |   |   |   |   |   |--- feature_0 >  0.67
|   |   |   |   |   |   |   |   |   |   |   |--- truncated branch of depth 9
|   |   |   |   |   |   |   |   |--- feature_0 >  0.91
|   |   |   |   |   |   |   |   |   |--- feature_7 <= 120880544.00
|   |   |   |   |   |   |   |   |   |   |--- feature_6 <= 124826.50
|   |   |   |   |   |   |   |   |   |   |   |--- truncated branch of depth 3
|   |   |   |   |   |   |   |   |   |   |--- feature_6 >  124826.50
|   |   |   |   |   |   |   |   |   |   |   |--- truncated branch of depth 2
|   |   |   |   |   |   |   |   |   |--- feature_7 >  120880544.00
|   |   |   |   |   |   |   |   |   |   |--- feature_2 <= 0.60
|   |   |   |   |   |   |   |   |   |   |   |--- class: 5
|   |   |   |   |   |   |   |   |   |   |--- feature_2 >  0.60
|   |   |   |   |   |   |   |   |   |   |   |--- truncated branch of depth 8
|   |   |--- feature_13 >  0.50
|   |   |   |--- feature_5 <= 0.41
|   |   |   |   |--- class: 2
|   |   |   |--- feature_5 >  0.41
|   |   |   |   |--- class: 4
|   |--- feature_11 >  79.50
|   |   |--- feature_13 <= 0.50
|   |   |   |--- class: 6
|   |   |--- feature_13 >  0.50
|   |   |   |--- class: 3
|--- feature_3 >  -0.50
|   |--- class: 1
